/* Defines the base address of the memories and peripherals */
#include "inc/hw_memmap.h"

/* Defines the common types and macros */
#include "inc/hw_types.h"

#include "inc/hw_timer.h"

#include "inc/hw_ints.h"

/* Defines and Macros for GPIO API */
#include "driverlib/gpio.h"

/* Prototypes for the system control driver */
#include "driverlib/sysctl.h"

/* ADC headers for using the ADC driver functions. */
#include "driverlib/adc.h"

/* Defines and Macros for the UART. */
#include "driverlib/uart.h"

/* Prototypes for the NVIC Interrupt Controller Driver. */
#include "driverlib/interrupt.h"

/* Prototypes for the UART console functions. */
#include "utils/uartstdio.h"

#include "IQmath/IQmathLib.h"

#include "driverlib/timer.h"

#include "driverlib/ELT240320TP.h"

#define N 514

int a1=0;

_iq17 l1,l2,l3,l4,l5,l6,l7,l8,m,n1,n2,n3,n4,n5,n6,n7,n8;


int r01,r02,r03,r04,r05,r06,r07,r08;

unsigned long a,n;

//0-300
const float b1[427]={0.000008,0.000002,0.000003,0.000003,0.000003,0.000004,0.000004,0.000004,0.000005,0.000005,0.000005,0.000006,0.000006,0.000006,0.000006,0.000006,0.000006,0.000006,0.000005,0.000005,0.000004,0.000003,0.000002,0.000000,-0.000002,-0.000004,-0.000007,-0.000010,-0.000013,-0.000017,-0.000021,-0.000026,-0.000032,-0.000038,-0.000046,-0.000054,-0.000062,-0.000072,-0.000083,-0.000094,-0.000107,-0.000121,-0.000136,-0.000153,-0.000171,-0.000190,-0.000211,-0.000233,-0.000257,-0.000283,-0.000311,-0.000341,-0.000372,-0.000406,-0.000442,-0.000480,-0.000520,-0.000563,-0.000608,-0.000656,-0.000706,-0.000759,-0.000814,-0.000872,-0.000934,-0.000997,-0.001064,-0.001134,-0.001207,-0.001283,-0.001362,-0.001444,-0.001529,-0.001617,-0.001708,-0.001802,-0.001900,-0.002000,-0.002103,-0.002210,-0.002319,-0.002431,-0.002546,-0.002663,-0.002783,-0.002906,-0.003031,-0.003158,-0.003288,-0.003419,-0.003553,-0.003688,-0.003824,-0.003962,-0.004101,-0.004241,-0.004381,-0.004523,-0.004664,-0.004805,-0.004946,-0.005087,-0.005227,-0.005365,-0.005503,-0.005638,-0.005772,-0.005903,-0.006032,-0.006157,-0.006280,-0.006398,-0.006513,-0.006624,-0.006730,-0.006831,-0.006926,-0.007016,-0.007100,-0.007177,-0.007248,-0.007311,-0.007367,-0.007416,-0.007456,-0.007488,-0.007511,-0.007526,-0.007531,-0.007526,-0.007512,-0.007488,-0.007453,-0.007408,-0.007352,-0.007285,-0.007207,-0.007118,-0.007017,-0.006905,-0.006782,-0.006646,-0.006499,-0.006340,-0.006169,-0.005986,-0.005792,-0.005586,-0.005368,-0.005139,-0.004899,-0.004647,-0.004384,-0.004110,-0.003826,-0.003531,-0.003227,-0.002912,-0.002588,-0.002256,-0.001914,-0.001564,-0.001206,-0.000841,-0.000469,-0.000090,0.000295,0.000685,0.001080,0.001480,0.001883,0.002289,0.002698,0.003109,0.003522,0.003935,0.004348,0.004760,0.005171,0.005581,0.005987,0.006391,0.006790,0.007185,0.007575,0.007959,0.008336,0.008706,0.009068,0.009422,0.009766,0.010101,0.010426,0.010739,0.011041,0.011331,0.011609,0.011874,0.012125,0.012362,0.012584,0.012792,0.012985,0.013162,0.013324,0.013469,0.013597,0.013709,0.013805,0.013883,0.013944,0.013987,0.014013,0.014022,0.014013,0.013987,0.013944,0.013883,0.013805,0.013709,0.013597,0.013469,0.013324,0.013162,0.012985,0.012792,0.012584,0.012362,0.012125,0.011874,0.011609,0.011331,0.011041,0.010739,0.010426,0.010101,0.009766,0.009422,0.009068,0.008706,0.008336,0.007959,0.007575,0.007185,0.006790,0.006391,0.005987,0.005581,0.005171,0.004760,0.004348,0.003935,0.003522,0.003109,0.002698,0.002289,0.001883,0.001480,0.001080,0.000685,0.000295,-0.000090,-0.000469,-0.000841,-0.001206,-0.001564,-0.001914,-0.002256,-0.002588,-0.002912,-0.003227,-0.003531,-0.003826,-0.004110,-0.004384,-0.004647,-0.004899,-0.005139,-0.005368,-0.005586,-0.005792,-0.005986,-0.006169,-0.006340,-0.006499,-0.006646,-0.006782,-0.006905,-0.007017,-0.007118,-0.007207,-0.007285,-0.007352,-0.007408,-0.007453,-0.007488,-0.007512,-0.007526,-0.007531,-0.007526,-0.007511,-0.007488,-0.007456,-0.007416,-0.007367,-0.007311,-0.007248,-0.007177,-0.007100,-0.007016,-0.006926,-0.006831,-0.006730,-0.006624,-0.006513,-0.006398,-0.006280,-0.006157,-0.006032,-0.005903,-0.005772,-0.005638,-0.005503,-0.005365,-0.005227,-0.005087,-0.004946,-0.004805,-0.004664,-0.004523,-0.004381,-0.004241,-0.004101,-0.003962,-0.003824,-0.003688,-0.003553,-0.003419,-0.003288,-0.003158,-0.003031,-0.002906,-0.002783,-0.002663,-0.002546,-0.002431,-0.002319,-0.002210,-0.002103,-0.002000,-0.001900,-0.001802,-0.001708,-0.001617,-0.001529,-0.001444,-0.001362,-0.001283,-0.001207,-0.001134,-0.001064,-0.000997,-0.000934,-0.000872,-0.000814,-0.000759,-0.000706,-0.000656,-0.000608,-0.000563,-0.000520,-0.000480,-0.000442,-0.000406,-0.000372,-0.000341,-0.000311,-0.000283,-0.000257,-0.000233,-0.000211,-0.000190,-0.000171,-0.000153,-0.000136,-0.000121,-0.000107,-0.000094,-0.000083,-0.000072,-0.000062,-0.000054,-0.000046,-0.000038,-0.000032,-0.000026,-0.000021,-0.000017,-0.000013,-0.000010,-0.000007,-0.000004,-0.000002,0.000000,0.000002,0.000003,0.000004,0.000005,0.000005,0.000006,0.000006,0.000006,0.000006,0.000006,0.000006,0.000006,0.000005,0.000005,0.000005,0.000004,0.000004,0.000004,0.000003,0.000003,0.000003,0.000002,0.000008};
//300-700
const float b2[427]={0.000010,0.000006,0.000008,0.000010,0.000013,0.000016,0.000019,0.000022,0.000026,0.000030,0.000034,0.000039,0.000044,0.000049,0.000054,0.000059,0.000064,0.000069,0.000073,0.000078,0.000081,0.000085,0.000087,0.000089,0.000090,0.000090,0.000089,0.000087,0.000083,0.000078,0.000072,0.000064,0.000055,0.000044,0.000031,0.000017,0.000002,-0.000014,-0.000032,-0.000050,-0.000070,-0.000090,-0.000110,-0.000130,-0.000150,-0.000169,-0.000187,-0.000203,-0.000218,-0.000230,-0.000240,-0.000247,-0.000250,-0.000250,-0.000245,-0.000236,-0.000222,-0.000203,-0.000179,-0.000150,-0.000116,-0.000076,-0.000031,0.000019,0.000073,0.000131,0.000194,0.000259,0.000327,0.000396,0.000466,0.000536,0.000604,0.000670,0.000733,0.000790,0.000842,0.000886,0.000922,0.000948,0.000963,0.000965,0.000955,0.000930,0.000889,0.000833,0.000759,0.000669,0.000562,0.000437,0.000294,0.000135,-0.000040,-0.000231,-0.000436,-0.000653,-0.000882,-0.001120,-0.001364,-0.001614,-0.001865,-0.002116,-0.002363,-0.002603,-0.002832,-0.003049,-0.003248,-0.003427,-0.003582,-0.003710,-0.003808,-0.003873,-0.003902,-0.003892,-0.003841,-0.003747,-0.003608,-0.003423,-0.003192,-0.002915,-0.002590,-0.002220,-0.001805,-0.001348,-0.000851,-0.000316,0.000253,0.000851,0.001474,0.002117,0.002774,0.003440,0.004108,0.004772,0.005424,0.006058,0.006667,0.007243,0.007779,0.008268,0.008703,0.009078,0.009386,0.009623,0.009781,0.009858,0.009848,0.009749,0.009558,0.009273,0.008895,0.008422,0.007856,0.007200,0.006456,0.005628,0.004722,0.003744,0.002700,0.001598,0.000446,-0.000745,-0.001967,-0.003208,-0.004458,-0.005706,-0.006939,-0.008146,-0.009315,-0.010434,-0.011493,-0.012479,-0.013383,-0.014193,-0.014900,-0.015496,-0.015973,-0.016325,-0.016544,-0.016628,-0.016572,-0.016374,-0.016034,-0.015553,-0.014932,-0.014175,-0.013286,-0.012272,-0.011139,-0.009897,-0.008555,-0.007123,-0.005614,-0.004040,-0.002415,-0.000752,0.000935,0.002629,0.004317,0.005983,0.007613,0.009190,0.010702,0.012135,0.013474,0.014708,0.015826,0.016817,0.017671,0.018381,0.018941,0.019344,0.019588,0.019669,0.019588,0.019344,0.018941,0.018381,0.017671,0.016817,0.015826,0.014708,0.013474,0.012135,0.010702,0.009190,0.007613,0.005983,0.004317,0.002629,0.000935,-0.000752,-0.002415,-0.004040,-0.005614,-0.007123,-0.008555,-0.009897,-0.011139,-0.012272,-0.013286,-0.014175,-0.014932,-0.015553,-0.016034,-0.016374,-0.016572,-0.016628,-0.016544,-0.016325,-0.015973,-0.015496,-0.014900,-0.014193,-0.013383,-0.012479,-0.011493,-0.010434,-0.009315,-0.008146,-0.006939,-0.005706,-0.004458,-0.003208,-0.001967,-0.000745,0.000446,0.001598,0.002700,0.003744,0.004722,0.005628,0.006456,0.007200,0.007856,0.008422,0.008895,0.009273,0.009558,0.009749,0.009848,0.009858,0.009781,0.009623,0.009386,0.009078,0.008703,0.008268,0.007779,0.007243,0.006667,0.006058,0.005424,0.004772,0.004108,0.003440,0.002774,0.002117,0.001474,0.000851,0.000253,-0.000316,-0.000851,-0.001348,-0.001805,-0.002220,-0.002590,-0.002915,-0.003192,-0.003423,-0.003608,-0.003747,-0.003841,-0.003892,-0.003902,-0.003873,-0.003808,-0.003710,-0.003582,-0.003427,-0.003248,-0.003049,-0.002832,-0.002603,-0.002363,-0.002116,-0.001865,-0.001614,-0.001364,-0.001120,-0.000882,-0.000653,-0.000436,-0.000231,-0.000040,0.000135,0.000294,0.000437,0.000562,0.000669,0.000759,0.000833,0.000889,0.000930,0.000955,0.000965,0.000963,0.000948,0.000922,0.000886,0.000842,0.000790,0.000733,0.000670,0.000604,0.000536,0.000466,0.000396,0.000327,0.000259,0.000194,0.000131,0.000073,0.000019,-0.000031,-0.000076,-0.000116,-0.000150,-0.000179,-0.000203,-0.000222,-0.000236,-0.000245,-0.000250,-0.000250,-0.000247,-0.000240,-0.000230,-0.000218,-0.000203,-0.000187,-0.000169,-0.000150,-0.000130,-0.000110,-0.000090,-0.000070,-0.000050,-0.000032,-0.000014,0.000002,0.000017,0.000031,0.000044,0.000055,0.000064,0.000072,0.000078,0.000083,0.000087,0.000089,0.000090,0.000090,0.000089,0.000087,0.000085,0.000081,0.000078,0.000073,0.000069,0.000064,0.000059,0.000054,0.000049,0.000044,0.000039,0.000034,0.000030,0.000026,0.000022,0.000019,0.000016,0.000013,0.000010,0.000008,0.000006,0.000010};
//700-1400
const float b3[427]={0.000008,0.000003,0.000002,-0.000001,-0.000006,-0.000014,-0.000026,-0.000041,-0.000061,-0.000086,-0.000115,-0.000148,-0.000185,-0.000224,-0.000263,-0.000301,-0.000334,-0.000360,-0.000375,-0.000377,-0.000362,-0.000328,-0.000273,-0.000196,-0.000095,0.000027,0.000168,0.000325,0.000493,0.000664,0.000832,0.000988,0.001123,0.001229,0.001296,0.001317,0.001285,0.001197,0.001050,0.000846,0.000587,0.000281,-0.000064,-0.000434,-0.000815,-0.001192,-0.001547,-0.001863,-0.002124,-0.002316,-0.002426,-0.002445,-0.002369,-0.002198,-0.001935,-0.001590,-0.001177,-0.000711,-0.000213,0.000294,0.000789,0.001248,0.001650,0.001979,0.002219,0.002361,0.002402,0.002342,0.002190,0.001957,0.001660,0.001320,0.000959,0.000601,0.000267,-0.000022,-0.000250,-0.000405,-0.000480,-0.000476,-0.000399,-0.000261,-0.000078,0.000127,0.000332,0.000513,0.000644,0.000707,0.000684,0.000565,0.000346,0.000030,-0.000370,-0.000838,-0.001348,-0.001872,-0.002376,-0.002827,-0.003194,-0.003448,-0.003564,-0.003529,-0.003334,-0.002981,-0.002483,-0.001861,-0.001144,-0.000367,0.000429,0.001203,0.001914,0.002525,0.003004,0.003330,0.003488,0.003477,0.003308,0.002999,0.002580,0.002089,0.001567,0.001058,0.000604,0.000243,0.000006,-0.000087,-0.000027,0.000180,0.000519,0.000958,0.001459,0.001972,0.002445,0.002825,0.003060,0.003107,0.002934,0.002520,0.001862,0.000975,-0.000111,-0.001350,-0.002681,-0.004033,-0.005331,-0.006497,-0.007458,-0.008148,-0.008518,-0.008533,-0.008182,-0.007473,-0.006438,-0.005128,-0.003614,-0.001979,-0.000315,0.001284,0.002727,0.003935,0.004843,0.005408,0.005612,0.005463,0.004995,0.004268,0.003363,0.002377,0.001417,0.000591,0.000002,-0.000262,-0.000135,0.000420,0.001409,0.002801,0.004529,0.006493,0.008563,0.010586,0.012395,0.013821,0.014700,0.014890,0.014275,0.012782,0.010381,0.007098,0.003010,-0.001749,-0.006998,-0.012511,-0.018034,-0.023290,-0.027997,-0.031884,-0.034707,-0.036258,-0.036386,-0.035001,-0.032085,-0.027695,-0.021962,-0.015086,-0.007332,0.000988,0.009523,0.017905,0.025765,0.032751,0.038548,0.042890,0.045577,0.046487,0.045577,0.042890,0.038548,0.032751,0.025765,0.017905,0.009523,0.000988,-0.007332,-0.015086,-0.021962,-0.027695,-0.032085,-0.035001,-0.036386,-0.036258,-0.034707,-0.031884,-0.027997,-0.023290,-0.018034,-0.012511,-0.006998,-0.001749,0.003010,0.007098,0.010381,0.012782,0.014275,0.014890,0.014700,0.013821,0.012395,0.010586,0.008563,0.006493,0.004529,0.002801,0.001409,0.000420,-0.000135,-0.000262,0.000002,0.000591,0.001417,0.002377,0.003363,0.004268,0.004995,0.005463,0.005612,0.005408,0.004843,0.003935,0.002727,0.001284,-0.000315,-0.001979,-0.003614,-0.005128,-0.006438,-0.007473,-0.008182,-0.008533,-0.008518,-0.008148,-0.007458,-0.006497,-0.005331,-0.004033,-0.002681,-0.001350,-0.000111,0.000975,0.001862,0.002520,0.002934,0.003107,0.003060,0.002825,0.002445,0.001972,0.001459,0.000958,0.000519,0.000180,-0.000027,-0.000087,0.000006,0.000243,0.000604,0.001058,0.001567,0.002089,0.002580,0.002999,0.003308,0.003477,0.003488,0.003330,0.003004,0.002525,0.001914,0.001203,0.000429,-0.000367,-0.001144,-0.001861,-0.002483,-0.002981,-0.003334,-0.003529,-0.003564,-0.003448,-0.003194,-0.002827,-0.002376,-0.001872,-0.001348,-0.000838,-0.000370,0.000030,0.000346,0.000565,0.000684,0.000707,0.000644,0.000513,0.000332,0.000127,-0.000078,-0.000261,-0.000399,-0.000476,-0.000480,-0.000405,-0.000250,-0.000022,0.000267,0.000601,0.000959,0.001320,0.001660,0.001957,0.002190,0.002342,0.002402,0.002361,0.002219,0.001979,0.001650,0.001248,0.000789,0.000294,-0.000213,-0.000711,-0.001177,-0.001590,-0.001935,-0.002198,-0.002369,-0.002445,-0.002426,-0.002316,-0.002124,-0.001863,-0.001547,-0.001192,-0.000815,-0.000434,-0.000064,0.000281,0.000587,0.000846,0.001050,0.001197,0.001285,0.001317,0.001296,0.001229,0.001123,0.000988,0.000832,0.000664,0.000493,0.000325,0.000168,0.000027,-0.000095,-0.000196,-0.000273,-0.000328,-0.000362,-0.000377,-0.000375,-0.000360,-0.000334,-0.000301,-0.000263,-0.000224,-0.000185,-0.000148,-0.000115,-0.000086,-0.000061,-0.000041,-0.000026,-0.000014,-0.000006,-0.000001,0.000002,0.000003,0.000008};
//1400-2100
const float b4[427]={0.000014,0.000016,0.000023,0.000030,0.000037,0.000043,0.000046,0.000045,0.000039,0.000026,0.000006,-0.000020,-0.000054,-0.000094,-0.000138,-0.000184,-0.000228,-0.000266,-0.000294,-0.000306,-0.000298,-0.000266,-0.000208,-0.000121,-0.000009,0.000125,0.000271,0.000419,0.000555,0.000662,0.000724,0.000725,0.000656,0.000508,0.000286,-0.000002,-0.000335,-0.000685,-0.001017,-0.001292,-0.001473,-0.001527,-0.001430,-0.001174,-0.000766,-0.000233,0.000383,0.001022,0.001617,0.002099,0.002404,0.002484,0.002310,0.001882,0.001228,0.000403,-0.000512,-0.001424,-0.002230,-0.002838,-0.003173,-0.003187,-0.002868,-0.002244,-0.001375,-0.000355,0.000706,0.001689,0.002486,0.003010,0.003207,0.003064,0.002606,0.001899,0.001036,0.000126,-0.000722,-0.001413,-0.001877,-0.002080,-0.002026,-0.001757,-0.001341,-0.000862,-0.000407,-0.000049,0.000162,0.000210,0.000114,-0.000078,-0.000294,-0.000455,-0.000487,-0.000340,0.000004,0.000524,0.001161,0.001820,0.002393,0.002766,0.002845,0.002570,0.001928,0.000963,-0.000232,-0.001522,-0.002746,-0.003743,-0.004371,-0.004533,-0.004189,-0.003365,-0.002153,-0.000698,0.000822,0.002222,0.003331,0.004024,0.004234,0.003963,0.003280,0.002309,0.001209,0.000144,-0.000736,-0.001327,-0.001583,-0.001522,-0.001220,-0.000801,-0.000405,-0.000167,-0.000185,-0.000503,-0.001093,-0.001862,-0.002659,-0.003303,-0.003611,-0.003435,-0.002692,-0.001387,0.000382,0.002425,0.004486,0.006273,0.007508,0.007964,0.007506,0.006120,0.003921,0.001142,-0.001893,-0.004809,-0.007237,-0.008866,-0.009487,-0.009029,-0.007566,-0.005313,-0.002588,0.000231,0.002769,0.004705,0.005830,0.006071,0.005505,0.004340,0.002880,0.001466,0.000417,-0.000037,0.000204,0.001080,0.002374,0.003747,0.004790,0.005099,0.004354,0.002391,-0.000745,-0.004783,-0.009241,-0.013480,-0.016785,-0.018477,-0.018022,-0.015131,-0.009834,-0.002510,0.006128,0.015105,0.023293,0.029559,0.032913,0.032666,0.028534,0.020717,0.009897,-0.002816,-0.016005,-0.028112,-0.037632,-0.043306,-0.044294,-0.040294,-0.031603,-0.019095,-0.004129,0.011607,0.026302,0.038243,0.046024,0.048724,0.046024,0.038243,0.026302,0.011607,-0.004129,-0.019095,-0.031603,-0.040294,-0.044294,-0.043306,-0.037632,-0.028112,-0.016005,-0.002816,0.009897,0.020717,0.028534,0.032666,0.032913,0.029559,0.023293,0.015105,0.006128,-0.002510,-0.009834,-0.015131,-0.018022,-0.018477,-0.016785,-0.013480,-0.009241,-0.004783,-0.000745,0.002391,0.004354,0.005099,0.004790,0.003747,0.002374,0.001080,0.000204,-0.000037,0.000417,0.001466,0.002880,0.004340,0.005505,0.006071,0.005830,0.004705,0.002769,0.000231,-0.002588,-0.005313,-0.007566,-0.009029,-0.009487,-0.008866,-0.007237,-0.004809,-0.001893,0.001142,0.003921,0.006120,0.007506,0.007964,0.007508,0.006273,0.004486,0.002425,0.000382,-0.001387,-0.002692,-0.003435,-0.003611,-0.003303,-0.002659,-0.001862,-0.001093,-0.000503,-0.000185,-0.000167,-0.000405,-0.000801,-0.001220,-0.001522,-0.001583,-0.001327,-0.000736,0.000144,0.001209,0.002309,0.003280,0.003963,0.004234,0.004024,0.003331,0.002222,0.000822,-0.000698,-0.002153,-0.003365,-0.004189,-0.004533,-0.004371,-0.003743,-0.002746,-0.001522,-0.000232,0.000963,0.001928,0.002570,0.002845,0.002766,0.002393,0.001820,0.001161,0.000524,0.000004,-0.000340,-0.000487,-0.000455,-0.000294,-0.000078,0.000114,0.000210,0.000162,-0.000049,-0.000407,-0.000862,-0.001341,-0.001757,-0.002026,-0.002080,-0.001877,-0.001413,-0.000722,0.000126,0.001036,0.001899,0.002606,0.003064,0.003207,0.003010,0.002486,0.001689,0.000706,-0.000355,-0.001375,-0.002244,-0.002868,-0.003187,-0.003173,-0.002838,-0.002230,-0.001424,-0.000512,0.000403,0.001228,0.001882,0.002310,0.002484,0.002404,0.002099,0.001617,0.001022,0.000383,-0.000233,-0.000766,-0.001174,-0.001430,-0.001527,-0.001473,-0.001292,-0.001017,-0.000685,-0.000335,-0.000002,0.000286,0.000508,0.000656,0.000725,0.000724,0.000662,0.000555,0.000419,0.000271,0.000125,-0.000009,-0.000121,-0.000208,-0.000266,-0.000298,-0.000306,-0.000294,-0.000266,-0.000228,-0.000184,-0.000138,-0.000094,-0.000054,-0.000020,0.000006,0.000026,0.000039,0.000045,0.000046,0.000043,0.000037,0.000030,0.000023,0.000016,0.000014};
//2100-3500
const float b5[427]={-0.000008,-0.000002,-0.000001,0.000001,0.000000,-0.000006,-0.000017,-0.000027,-0.000024,0.000006,0.000075,0.000185,0.000319,0.000441,0.000499,0.000442,0.000234,-0.000116,-0.000550,-0.000961,-0.001212,-0.001181,-0.000801,-0.000101,0.000784,0.001628,0.002175,0.002211,0.001641,0.000539,-0.000850,-0.002163,-0.003020,-0.003136,-0.002422,-0.001023,0.000703,0.002288,0.003289,0.003426,0.002669,0.001249,-0.000411,-0.001838,-0.002650,-0.002681,-0.002017,-0.000951,0.000130,0.000888,0.001150,0.000953,0.000513,0.000117,-0.000004,0.000223,0.000684,0.001122,0.001254,0.000899,0.000066,-0.001023,-0.002012,-0.002537,-0.002370,-0.001513,-0.000211,0.001137,0.002117,0.002453,0.002101,0.001257,0.000267,-0.000515,-0.000865,-0.000774,-0.000434,-0.000136,-0.000127,-0.000490,-0.001089,-0.001621,-0.001748,-0.001251,-0.000153,0.001267,0.002554,0.003247,0.003059,0.002000,0.000384,-0.001279,-0.002476,-0.002876,-0.002451,-0.001471,-0.000378,0.000405,0.000652,0.000419,0.000007,-0.000195,0.000098,0.000910,0.001966,0.002787,0.002893,0.002025,0.000289,-0.001846,-0.003698,-0.004625,-0.004276,-0.002737,-0.000510,0.001677,0.003144,0.003516,0.002854,0.001603,0.000385,-0.000284,-0.000220,0.000355,0.000922,0.000919,0.000029,-0.001630,-0.003503,-0.004800,-0.004821,-0.003276,-0.000454,0.002834,0.005533,0.006739,0.006048,0.003720,0.000582,-0.002293,-0.004011,-0.004195,-0.003111,-0.001517,-0.000299,-0.000061,-0.000836,-0.002060,-0.002824,-0.002311,-0.000217,0.003025,0.006340,0.008396,0.008157,0.005338,0.000605,-0.004617,-0.008648,-0.010185,-0.008806,-0.005133,-0.000577,0.003235,0.005114,0.004785,0.002957,0.000966,0.000134,0.001114,0.003533,0.006086,0.007091,0.005268,0.000422,-0.006291,-0.012669,-0.016254,-0.015317,-0.009631,-0.000694,0.008729,0.015602,0.017765,0.014779,0.008100,0.000480,-0.005179,-0.007051,-0.005188,-0.001503,0.001094,0.000081,-0.005330,-0.013514,-0.020774,-0.022704,-0.016086,-0.000594,0.020441,0.040647,0.052556,0.050260,0.031850,0.000692,-0.035074,-0.064785,-0.078613,-0.070912,-0.042394,-0.000302,0.043578,0.076483,0.088663,0.076483,0.043578,-0.000302,-0.042394,-0.070912,-0.078613,-0.064785,-0.035074,0.000692,0.031850,0.050260,0.052556,0.040647,0.020441,-0.000594,-0.016086,-0.022704,-0.020774,-0.013514,-0.005330,0.000081,0.001094,-0.001503,-0.005188,-0.007051,-0.005179,0.000480,0.008100,0.014779,0.017765,0.015602,0.008729,-0.000694,-0.009631,-0.015317,-0.016254,-0.012669,-0.006291,0.000422,0.005268,0.007091,0.006086,0.003533,0.001114,0.000134,0.000966,0.002957,0.004785,0.005114,0.003235,-0.000577,-0.005133,-0.008806,-0.010185,-0.008648,-0.004617,0.000605,0.005338,0.008157,0.008396,0.006340,0.003025,-0.000217,-0.002311,-0.002824,-0.002060,-0.000836,-0.000061,-0.000299,-0.001517,-0.003111,-0.004195,-0.004011,-0.002293,0.000582,0.003720,0.006048,0.006739,0.005533,0.002834,-0.000454,-0.003276,-0.004821,-0.004800,-0.003503,-0.001630,0.000029,0.000919,0.000922,0.000355,-0.000220,-0.000284,0.000385,0.001603,0.002854,0.003516,0.003144,0.001677,-0.000510,-0.002737,-0.004276,-0.004625,-0.003698,-0.001846,0.000289,0.002025,0.002893,0.002787,0.001966,0.000910,0.000098,-0.000195,0.000007,0.000419,0.000652,0.000405,-0.000378,-0.001471,-0.002451,-0.002876,-0.002476,-0.001279,0.000384,0.002000,0.003059,0.003247,0.002554,0.001267,-0.000153,-0.001251,-0.001748,-0.001621,-0.001089,-0.000490,-0.000127,-0.000136,-0.000434,-0.000774,-0.000865,-0.000515,0.000267,0.001257,0.002101,0.002453,0.002117,0.001137,-0.000211,-0.001513,-0.002370,-0.002537,-0.002012,-0.001023,0.000066,0.000899,0.001254,0.001122,0.000684,0.000223,-0.000004,0.000117,0.000513,0.000953,0.001150,0.000888,0.000130,-0.000951,-0.002017,-0.002681,-0.002650,-0.001838,-0.000411,0.001249,0.002669,0.003426,0.003289,0.002288,0.000703,-0.001023,-0.002422,-0.003136,-0.003020,-0.002163,-0.000850,0.000539,0.001641,0.002211,0.002175,0.001628,0.000784,-0.000101,-0.000801,-0.001181,-0.001212,-0.000961,-0.000550,-0.000116,0.000234,0.000442,0.000499,0.000441,0.000319,0.000185,0.000075,0.000006,-0.000024,-0.000027,-0.000017,-0.000006,0.000000,0.000001,-0.000001,-0.000002,-0.000008};
//3500-4900
float b6[427]={-0.001293,0.000614,0.002349,0.002748,0.001462,-0.000756,-0.002522,-0.002742,-0.001333,0.000746,0.002178,0.002173,0.000944,-0.000551,-0.001350,-0.001144,-0.000388,0.000181,0.000179,-0.000148,-0.000214,0.000309,0.001114,0.001446,0.000736,-0.000823,-0.002264,-0.002482,-0.001076,0.001241,0.003020,0.003039,0.001176,-0.001450,-0.003196,-0.002990,-0.001034,0.001365,0.002715,0.002328,0.000700,-0.000958,-0.001633,-0.001176,-0.000262,0.000273,0.000136,-0.000243,-0.000176,0.000577,0.001491,0.001645,0.000521,-0.001423,-0.002915,-0.002743,-0.000708,0.002074,0.003825,0.003305,0.000718,-0.002358,-0.003997,-0.003207,-0.000578,0.002162,0.003345,0.002453,0.000348,-0.001466,-0.001952,-0.001185,-0.000107,0.000358,0.000057,-0.000348,-0.000074,0.000971,0.001977,0.001838,0.000150,-0.002258,-0.003735,-0.002982,-0.000115,0.003215,0.004833,0.003539,0.000005,-0.003592,-0.004998,-0.003387,0.000113,0.003236,0.004130,0.002544,-0.000165,-0.002134,-0.002338,-0.001171,0.000088,0.000433,-0.000071,-0.000460,0.000137,0.001573,0.002639,0.002021,-0.000479,-0.003487,-0.004846,-0.003194,0.000855,0.004884,0.006205,0.003735,-0.001142,-0.005400,-0.006371,-0.003525,0.001209,0.004811,0.005214,0.002599,-0.000957,-0.003102,-0.002869,-0.001134,0.000349,0.000494,-0.000279,-0.000576,0.000559,0.002572,0.003646,0.002188,-0.001614,-0.005503,-0.006556,-0.003373,0.002582,0.007653,0.008363,0.003887,-0.003186,-0.008447,-0.008587,-0.003619,0.003173,0.007514,0.007016,0.002616,-0.002371,-0.004783,-0.003776,-0.001076,0.000757,0.000541,-0.000662,-0.000692,0.001506,0.004571,0.005541,0.002333,-0.004061,-0.009628,-0.009925,-0.003514,0.006386,0.013552,0.012851,0.003991,-0.007863,-0.015279,-0.013491,-0.003665,0.007876,0.013944,0.011305,0.002597,-0.005925,-0.009047,-0.006141,-0.001000,0.001733,0.000569,-0.001708,-0.000804,0.004672,0.010979,0.011535,0.002453,-0.012916,-0.024592,-0.022304,-0.003611,0.022301,0.038883,0.032801,0.004043,-0.031870,-0.052268,-0.041803,-0.003662,0.040534,0.063188,0.048261,0.002541,-0.047223,-0.070327,-0.051445,-0.000908,0.051050,0.072809,0.051050,-0.000908,-0.051445,-0.070327,-0.047223,0.002541,0.048261,0.063188,0.040534,-0.003662,-0.041803,-0.052268,-0.031870,0.004043,0.032801,0.038883,0.022301,-0.003611,-0.022304,-0.024592,-0.012916,0.002453,0.011535,0.010979,0.004672,-0.000804,-0.001708,0.000569,0.001733,-0.001000,-0.006141,-0.009047,-0.005925,0.002597,0.011305,0.013944,0.007876,-0.003665,-0.013491,-0.015279,-0.007863,0.003991,0.012851,0.013552,0.006386,-0.003514,-0.009925,-0.009628,-0.004061,0.002333,0.005541,0.004571,0.001506,-0.000692,-0.000662,0.000541,0.000757,-0.001076,-0.003776,-0.004783,-0.002371,0.002616,0.007016,0.007514,0.003173,-0.003619,-0.008587,-0.008447,-0.003186,0.003887,0.008363,0.007653,0.002582,-0.003373,-0.006556,-0.005503,-0.001614,0.002188,0.003646,0.002572,0.000559,-0.000576,-0.000279,0.000494,0.000349,-0.001134,-0.002869,-0.003102,-0.000957,0.002599,0.005214,0.004811,0.001209,-0.003525,-0.006371,-0.005400,-0.001142,0.003735,0.006205,0.004884,0.000855,-0.003194,-0.004846,-0.003487,-0.000479,0.002021,0.002639,0.001573,0.000137,-0.000460,-0.000071,0.000433,0.000088,-0.001171,-0.002338,-0.002134,-0.000165,0.002544,0.004130,0.003236,0.000113,-0.003387,-0.004998,-0.003592,0.000005,0.003539,0.004833,0.003215,-0.000115,-0.002982,-0.003735,-0.002258,0.000150,0.001838,0.001977,0.000971,-0.000074,-0.000348,0.000057,0.000358,-0.000107,-0.001185,-0.001952,-0.001466,0.000348,0.002453,0.003345,0.002162,-0.000578,-0.003207,-0.003997,-0.002358,0.000718,0.003305,0.003825,0.002074,-0.000708,-0.002743,-0.002915,-0.001423,0.000521,0.001645,0.001491,0.000577,-0.000176,-0.000243,0.000136,0.000273,-0.000262,-0.001176,-0.001633,-0.000958,0.000700,0.002328,0.002715,0.001365,-0.001034,-0.002990,-0.003196,-0.001450,0.001176,0.003039,0.003020,0.001241,-0.001076,-0.002482,-0.002264,-0.000823,0.000736,0.001446,0.001114,0.000309,-0.000214,-0.000148,0.000179,0.000181,-0.000388,-0.001144,-0.001350,-0.000551,0.000944,0.002173,0.002178,0.000746,-0.001333,-0.002742,-0.002522,-0.000756,0.001462,0.002748,0.002349,0.000614,-0.001293};
//4900-6300
float b7[427]={0.002663,0.000844,-0.001933,-0.002773,-0.000835,0.001772,0.002386,0.000672,-0.001288,-0.001556,-0.000379,0.000561,0.000417,0.000000,0.000286,0.000838,0.000399,-0.001105,-0.001986,-0.000746,0.001747,0.002816,0.000976,-0.002094,-0.003169,-0.001041,0.002073,0.002962,0.000919,-0.001680,-0.002213,-0.000622,0.000973,0.001036,0.000196,-0.000071,0.000374,0.000290,-0.000871,-0.001770,-0.000751,0.001685,0.002901,0.001100,-0.002221,-0.003553,-0.001268,0.002374,0.003588,0.001213,-0.002104,-0.002976,-0.000934,0.001447,0.001799,0.000468,-0.000508,-0.000247,0.000111,-0.000555,-0.001416,-0.000704,0.001554,0.002895,0.001204,-0.002308,-0.003915,-0.001514,0.002673,0.004272,0.001565,-0.002569,-0.003870,-0.001333,0.001998,0.002747,0.000842,-0.001044,-0.001072,-0.000165,-0.000136,-0.000880,-0.000585,0.001338,0.002768,0.001277,-0.002348,-0.004249,-0.001781,0.002976,0.005034,0.001991,-0.003093,-0.004944,-0.001849,0.002654,0.003949,0.001358,-0.001715,-0.002180,-0.000582,0.000422,-0.000088,-0.000357,0.001011,0.002471,0.001299,-0.002331,-0.004546,-0.002071,0.003296,0.005917,0.002521,-0.003712,-0.006293,-0.002540,0.003476,0.005541,0.002091,-0.002593,-0.003723,-0.001218,0.001187,0.001098,0.000047,0.000521,0.001916,0.001233,-0.002240,-0.004799,-0.002398,0.003663,0.007018,0.003222,-0.004511,-0.008120,-0.003524,0.004593,0.007813,0.003198,-0.003838,-0.006035,-0.002243,0.002319,0.002983,0.000769,-0.000251,0.000906,0.001008,-0.002039,-0.005002,-0.002794,0.004157,0.008583,0.004263,-0.005704,-0.010944,-0.005106,0.006347,0.011520,0.005091,-0.005876,-0.010001,-0.004106,0.004254,0.006406,0.002198,-0.001639,-0.001114,0.000419,-0.001622,-0.005151,-0.003377,0.005032,0.011403,0.006192,-0.008003,-0.016513,-0.008324,0.009935,0.019361,0.009254,-0.010306,-0.019004,-0.008557,0.008750,0.014823,0.005974,-0.005120,-0.006635,-0.001465,-0.000475,-0.005242,-0.004770,0.007668,0.020001,0.012293,-0.015868,-0.036416,-0.020472,0.024325,0.052975,0.028548,-0.032214,-0.068056,-0.035721,0.038742,0.080123,0.041250,-0.043236,-0.087917,-0.044543,0.045235,0.090610,0.045235,-0.044543,-0.087917,-0.043236,0.041250,0.080123,0.038742,-0.035721,-0.068056,-0.032214,0.028548,0.052975,0.024325,-0.020472,-0.036416,-0.015868,0.012293,0.020001,0.007668,-0.004770,-0.005242,-0.000475,-0.001465,-0.006635,-0.005120,0.005974,0.014823,0.008750,-0.008557,-0.019004,-0.010306,0.009254,0.019361,0.009935,-0.008324,-0.016513,-0.008003,0.006192,0.011403,0.005032,-0.003377,-0.005151,-0.001622,0.000419,-0.001114,-0.001639,0.002198,0.006406,0.004254,-0.004106,-0.010001,-0.005876,0.005091,0.011520,0.006347,-0.005106,-0.010944,-0.005704,0.004263,0.008583,0.004157,-0.002794,-0.005002,-0.002039,0.001008,0.000906,-0.000251,0.000769,0.002983,0.002319,-0.002243,-0.006035,-0.003838,0.003198,0.007813,0.004593,-0.003524,-0.008120,-0.004511,0.003222,0.007018,0.003663,-0.002398,-0.004799,-0.002240,0.001233,0.001916,0.000521,0.000047,0.001098,0.001187,-0.001218,-0.003723,-0.002593,0.002091,0.005541,0.003476,-0.002540,-0.006293,-0.003712,0.002521,0.005917,0.003296,-0.002071,-0.004546,-0.002331,0.001299,0.002471,0.001011,-0.000357,-0.000088,0.000422,-0.000582,-0.002180,-0.001715,0.001358,0.003949,0.002654,-0.001849,-0.004944,-0.003093,0.001991,0.005034,0.002976,-0.001781,-0.004249,-0.002348,0.001277,0.002768,0.001338,-0.000585,-0.000880,-0.000136,-0.000165,-0.001072,-0.001044,0.000842,0.002747,0.001998,-0.001333,-0.003870,-0.002569,0.001565,0.004272,0.002673,-0.001514,-0.003915,-0.002308,0.001204,0.002895,0.001554,-0.000704,-0.001416,-0.000555,0.000111,-0.000247,-0.000508,0.000468,0.001799,0.001447,-0.000934,-0.002976,-0.002104,0.001213,0.003588,0.002374,-0.001268,-0.003553,-0.002221,0.001100,0.002901,0.001685,-0.000751,-0.001770,-0.000871,0.000290,0.000374,-0.000071,0.000196,0.001036,0.000973,-0.000622,-0.002213,-0.001680,0.000919,0.002962,0.002073,-0.001041,-0.003169,-0.002094,0.000976,0.002816,0.001747,-0.000746,-0.001986,-0.001105,0.000399,0.000838,0.000286,0.000000,0.000417,0.000561,-0.000379,-0.001556,-0.001288,0.000672,0.002386,0.001772,-0.000835,-0.002773,-0.001933,0.000844,0.002663};
//6300-9800
const float b8[427]={-0.002386,0.000656,0.001284,-0.000097,0.000486,-0.000153,-0.002144,0.000008,0.002925,0.000296,-0.002453,-0.000383,0.000941,0.000001,0.000915,0.000769,-0.002278,-0.001514,0.002582,0.001706,-0.001791,-0.001032,0.000383,-0.000374,0.000928,0.001926,-0.001573,-0.002848,0.001400,0.002576,-0.000706,-0.001088,0.000013,-0.001028,0.000270,0.002828,-0.000085,-0.003466,-0.000262,0.002616,0.000328,-0.000650,0.000146,-0.001537,-0.001018,0.002968,0.001778,-0.003057,-0.001833,0.001876,0.000883,-0.000087,0.000827,-0.001437,-0.002551,0.002059,0.003388,-0.001682,-0.002764,0.000736,0.000780,0.000131,0.001760,-0.000449,-0.003709,0.000199,0.004125,0.000215,-0.002760,-0.000261,0.000201,-0.000327,0.002396,0.001327,-0.003877,-0.002102,0.003643,0.001969,-0.001924,-0.000653,-0.000373,-0.001448,0.002159,0.003379,-0.002718,-0.004078,0.002037,0.002959,-0.000729,-0.000300,-0.000375,-0.002801,0.000728,0.004917,-0.000370,-0.004989,-0.000152,0.002882,0.000182,0.000505,0.000564,-0.003655,-0.001743,0.005165,0.002535,-0.004428,-0.002132,0.001911,0.000295,0.001118,0.002364,-0.003260,-0.004579,0.003689,0.005051,-0.002522,-0.003184,0.000656,-0.000485,0.000802,0.004413,-0.001191,-0.006752,0.000642,0.006259,0.000068,-0.002980,-0.000083,-0.001706,-0.000908,0.005705,0.002378,-0.007222,-0.003208,0.005634,0.002374,-0.001789,0.000317,-0.002451,-0.003901,0.005166,0.006591,-0.005338,-0.006673,0.003299,0.003504,-0.000439,0.001942,-0.001645,-0.007344,0.002074,0.010079,-0.001144,-0.008539,0.000053,0.003052,-0.000051,0.004123,0.001526,-0.009785,-0.003600,0.011320,0.004547,-0.008004,-0.002862,0.001391,-0.001619,0.005444,0.007235,-0.009434,-0.011056,0.009049,0.010344,-0.005005,-0.004184,-0.000232,-0.005586,0.003877,0.014820,-0.004423,-0.018824,0.002472,0.014698,-0.000298,-0.003095,0.000323,-0.011587,-0.003337,0.022885,0.007559,-0.025162,-0.009243,0.016407,0.004746,0.000446,0.006866,-0.018469,-0.022086,0.029661,0.033238,-0.028584,-0.031041,0.015025,0.008585,0.005628,0.034935,-0.024590,-0.092543,0.033529,0.150855,-0.028326,-0.194247,0.011020,0.210288,0.011020,-0.194247,-0.028326,0.150855,0.033529,-0.092543,-0.024590,0.034935,0.005628,0.008585,0.015025,-0.031041,-0.028584,0.033238,0.029661,-0.022086,-0.018469,0.006866,0.000446,0.004746,0.016407,-0.009243,-0.025162,0.007559,0.022885,-0.003337,-0.011587,0.000323,-0.003095,-0.000298,0.014698,0.002472,-0.018824,-0.004423,0.014820,0.003877,-0.005586,-0.000232,-0.004184,-0.005005,0.010344,0.009049,-0.011056,-0.009434,0.007235,0.005444,-0.001619,0.001391,-0.002862,-0.008004,0.004547,0.011320,-0.003600,-0.009785,0.001526,0.004123,-0.000051,0.003052,0.000053,-0.008539,-0.001144,0.010079,0.002074,-0.007344,-0.001645,0.001942,-0.000439,0.003504,0.003299,-0.006673,-0.005338,0.006591,0.005166,-0.003901,-0.002451,0.000317,-0.001789,0.002374,0.005634,-0.003208,-0.007222,0.002378,0.005705,-0.000908,-0.001706,-0.000083,-0.002980,0.000068,0.006259,0.000642,-0.006752,-0.001191,0.004413,0.000802,-0.000485,0.000656,-0.003184,-0.002522,0.005051,0.003689,-0.004579,-0.003260,0.002364,0.001118,0.000295,0.001911,-0.002132,-0.004428,0.002535,0.005165,-0.001743,-0.003655,0.000564,0.000505,0.000182,0.002882,-0.000152,-0.004989,-0.000370,0.004917,0.000728,-0.002801,-0.000375,-0.000300,-0.000729,0.002959,0.002037,-0.004078,-0.002718,0.003379,0.002159,-0.001448,-0.000373,-0.000653,-0.001924,0.001969,0.003643,-0.002102,-0.003877,0.001327,0.002396,-0.000327,0.000201,-0.000261,-0.002760,0.000215,0.004125,0.000199,-0.003709,-0.000449,0.001760,0.000131,0.000780,0.000736,-0.002764,-0.001682,0.003388,0.002059,-0.002551,-0.001437,0.000827,-0.000087,0.000883,0.001876,-0.001833,-0.003057,0.001778,0.002968,-0.001018,-0.001537,0.000146,-0.000650,0.000328,0.002616,-0.000262,-0.003466,-0.000085,0.002828,0.000270,-0.001028,0.000013,-0.001088,-0.000706,0.002576,0.001400,-0.002848,-0.001573,0.001926,0.000928,-0.000374,0.000383,-0.001032,-0.001791,0.001706,0.002582,-0.001514,-0.002278,0.000769,0.000915,0.000001,0.000941,-0.000383,-0.002453,0.000296,0.002925,0.000008,-0.002144,-0.000153,0.000486,-0.000097,0.001284,0.000656,-0.002386};


//long i;
long x[427];

unsigned long r1,r2,r3,r4,r5,r6,r7,r8;
int count=0;


unsigned long i,k,a,g_count=1,s1,j1=0;

long num1,y=0,num2,num3,num4,num5,num6,num7,num8,j=0,sum1=0,sum2=0,sum3=0,sum4=0,sum5=0,sum6=0,sum7=0,sum8=0;


int main(void)
{

        unsigned long temp[1];
        /*Set the clocking to directly run from the crystal at 50MHz*/
        SysCtlClockSet(SYSCTL_SYSDIV_4 | SYSCTL_USE_PLL | SYSCTL_OSC_MAIN | SYSCTL_XTAL_8MHZ);

        //Enabling Clock of ADC
        SysCtlPeripheralEnable(SYSCTL_PERIPH_ADC0);

        /* Set the clock for the GPIO Port A,B,C,D,E */
		SysCtlPeripheralEnable(SYSCTL_PERIPH_GPIOA);
		SysCtlPeripheralEnable(SYSCTL_PERIPH_GPIOB);
		SysCtlPeripheralEnable(SYSCTL_PERIPH_GPIOC);
		SysCtlPeripheralEnable(SYSCTL_PERIPH_GPIOD);
		SysCtlPeripheralEnable(SYSCTL_PERIPH_GPIOE);

        //Setting the direction of Port pins
		GPIOPinTypeGPIOOutput(GPIO_PORTA_BASE, GPIO_PIN_2|GPIO_PIN_3|GPIO_PIN_4|GPIO_PIN_5);
		GPIOPinTypeGPIOOutput(GPIO_PORTB_BASE, GPIO_PIN_0|GPIO_PIN_1|GPIO_PIN_2|GPIO_PIN_3|GPIO_PIN_4|GPIO_PIN_5|GPIO_PIN_6|GPIO_PIN_7);
		GPIOPinTypeGPIOOutput(GPIO_PORTC_BASE, GPIO_PIN_4);
		GPIOPinTypeGPIOOutput(GPIO_PORTD_BASE, GPIO_PIN_0);

		//Switch S3 as input
		GPIOPinTypeGPIOInput(GPIO_PORTE_BASE, GPIO_PIN_0);


		/*Configure GPIO pad with internal pull-up enabled*/
		GPIOPadConfigSet(GPIO_PORTE_BASE, GPIO_PIN_0, GPIO_STRENGTH_2MA,GPIO_PIN_TYPE_STD_WPU);

        IntMasterEnable();


        /*Configure ADC Peripheral*/
        ADCSequenceConfigure(ADC0_BASE, 3, ADC_TRIGGER_PROCESSOR, 0);
        /*Configure ADC Sequence*/
        ADCSequenceStepConfigure(ADC0_BASE, 3, 0, ADC_CTL_CH3 | ADC_CTL_IE | ADC_CTL_END);
        /*Enable ADC sequence*/
        ADCSequenceEnable(ADC0_BASE, 3);
        /*Clear ADC Interrupt*/
        ADCIntClear(ADC0_BASE, 3);

	        TSLCDRst();
		    TSLCDInit();
		    setBitBL;
		    TSLCDFillRect(0,TS_SIZE_X-1,0,TS_SIZE_Y-1,TS_COL_BLUE,TS_MODE_NORMAL);
		    TSLCDSetFontColor(TS_COL_WHITE);
		    TSLCDPrintStr(1,0,"        AUDIO SPECTRUM ANALYZER  ",TS_MODE_NORMAL);
		    TSLCDPrintStr(2,0,"           DEVELOPED AT CEDT  ",TS_MODE_NORMAL);
		    TSLCDPrintStr(5,2,"A.  0-300Hz",TS_MODE_NORMAL);
  		    TSLCDPrintStr(6,2,"B.  300-700Hz",TS_MODE_NORMAL);
  		    TSLCDPrintStr(7,2,"C.  700-1400Hz",TS_MODE_NORMAL);
   		    TSLCDPrintStr(8,2,"D.  1400-2100Hz",TS_MODE_NORMAL);
   		    TSLCDPrintStr(9,2,"E.  2100-3500Hz",TS_MODE_NORMAL);
   		    TSLCDPrintStr(10,2,"F.  3500-4900Hz",TS_MODE_NORMAL);
   		    TSLCDPrintStr(11,2,"G.  4900-6300Hz",TS_MODE_NORMAL);
   		    TSLCDPrintStr(12,2,"H.  6300-9800Hz",TS_MODE_NORMAL);

   		    while(g_count!=0)
		    {
		    	TSLCDFillRect(0,TS_SIZE_X-1,0,16,TS_COL_BLUE,TS_MODE_NORMAL);
		    	SysCtlDelay(SysCtlClockGet()/50);
		    	TSLCDPrintStr(14,8,"Press S2 to continue..",TS_MODE_NORMAL);
		    	SysCtlDelay(SysCtlClockGet()/50);
		    	s1 = GPIOPinRead(GPIO_PORTE_BASE, GPIO_PIN_0);

		    	if(s1==0)
		    	{
		    	//Make High
		    	g_count=0;
		    	}
		    }

		    TSLCDFillRect(0,TS_SIZE_Y-1,0,160,TS_COL_BLUE,TS_MODE_NORMAL);
		    TSLCDPrintStr(13,6,"A",TS_MODE_NORMAL);
		    TSLCDPrintStr(13,10,"B",TS_MODE_NORMAL);
		    TSLCDPrintStr(13,14,"C",TS_MODE_NORMAL);
		    TSLCDPrintStr(13,18,"D",TS_MODE_NORMAL);
		    TSLCDPrintStr(13,22,"E",TS_MODE_NORMAL);
		    TSLCDPrintStr(13,26,"F",TS_MODE_NORMAL);
		    TSLCDPrintStr(13,30,"G",TS_MODE_NORMAL);
		    TSLCDPrintStr(13,34,"H",TS_MODE_NORMAL);


while(1)
{

	for(i=0;i<10248;i++)
			  {
	             if(i%24 == 0)
	             {
	            	ADCProcessorTrigger(ADC0_BASE, 3);
					while(!ADCIntStatus(ADC0_BASE, 3, false))
					{
					}
		      ADCIntClear(ADC0_BASE, 3);
		      ADCSequenceDataGet(ADC0_BASE, 3, temp);
	          x[i/24]=temp[0]/2;
	             }
			   }

			num1=0;
			num2=0;
			num3=0;
			num4=0;
			num5=0;
			num6=0;
			num7=0;
			num8=0;

			n1 = _IQ17(0);
			n2 = _IQ17(0);
			n3 = _IQ17(0);
			n4 = _IQ17(0);
		    n5 = _IQ17(0);
			n6 = _IQ17(0);
			n7 = _IQ17(0);
			n8 = _IQ17(0);

		for(k=0;k<427;k++)
				{
		    //b=b1[k];
				 l1= _IQ17(b1[k]);
				 l2= _IQ17(b2[k]);
				 l3= _IQ17(b3[k]);
				 l4= _IQ17(b4[k]);
				 l5= _IQ17(b5[k]);
				 l6= _IQ17(b6[k]);
				 l7= _IQ17(b7[k]);
				 l8= _IQ17(b8[k]);
				  m= _IQ17(x[426-k]);
				 n1= n1 + _IQ17mpy(l1,m);
				 n2= n2 + _IQ17mpy(l2,m);
				 n3= n3 + _IQ17mpy(l3,m);
				 n4= n4 + _IQ17mpy(l4,m);
				 n5= n5 + _IQ17mpy(l5,m);
				 n6= n6 + _IQ17mpy(l6,m);
				 n7= n7 + _IQ17mpy(l7,m);
				 n8= n8 + _IQ17mpy(l8,m);

			    }

			 num1=_IQ17int(n1);
			 num2=_IQ17int(n2);
			 num3=_IQ17int(n3);
			 num4=_IQ17int(n4);
			 num5=_IQ17int(n5);
			 num6=_IQ17int(n6);
			 num7=_IQ17int(n7);
			 num8=_IQ17int(n8);

			 sum1+=num1*num1;
			 sum2+=num2*num2;
			 sum3+=num3*num3;
			 sum4+=num4*num4;
			 sum5+=num5*num5;
			 sum6+=num6*num6;
			 sum7+=num7*num7;
			 sum8+=num8*num8;

			 j++;

			 if(j==2)
			 {
				 sum1=sum1/4;
				 sum2=sum2/4;
				 sum3=sum3/4;
				 sum4=sum4/4;
				 sum5=sum5/4;
				 sum6=sum6/4;
				 sum7=sum7/4;
				 sum8=sum8/4;

				 r1=isqrt(sum1);
			     r2=isqrt(sum2);
			     r3=isqrt(sum3);
			     r4=isqrt(sum4);
			     r5=isqrt(sum5);
			     r6=isqrt(sum6);
			     r8=isqrt(sum8);
			     r7=isqrt(sum7);

			     sum1=sum2=sum3=sum4=sum5=sum6=sum7=sum8=0;
			     j=0;

			     //Calibrating the filters
				 if(r1>27)
				    r1=(r1-20);
     			 else if(r1<=27)
				    r1=0;

				 if(r8>2)
				    r8=r8-1;
	  			 else if(r8<=2)
				    r8=0;

			 }

               //Mapping filter outcomes with the length of bars
			    r01=(r1*5)/2 + 40;
		        r02=(r2*5) + 40;
		        r03=(r3*5) + 40;
		        r04=(r4*5) + 40;
		        r05=(r5*5) + 40;
		        r06=(r6*5) + 40;
		        r07=(r7*5) + 40;
		        r08=(r8*5) + 40;


		        if(r01>=160)
		        	r01=159;
		        if(r02>=160)
		        	r02=159;
		        if(r03>=160)
		          	r03=159;
		        if(r04>=160)
		            r04=159;
		        if(r05>=160)
		            r05=159;
		        if(r06>=160)
		            r06=159;
		        if(r07>=160)
		            r07=159;
		        if(r08>=160)
		            r08=159;

		        TSLCDFillRect(48,49,40,r01,TS_COL_WHITE,TS_MODE_NORMAL);
                TSLCDFillRect(48,49,r01,160,TS_COL_BLUE,TS_MODE_NORMAL);
         		TSLCDFillRect(80,81,40,r02,TS_COL_WHITE,TS_MODE_NORMAL);
                TSLCDFillRect(80,81,r02,160,TS_COL_BLUE,TS_MODE_NORMAL);
                TSLCDFillRect(112,113,40,r03,TS_COL_WHITE,TS_MODE_NORMAL);
                TSLCDFillRect(112,113,r03,160,TS_COL_BLUE,TS_MODE_NORMAL);
                TSLCDFillRect(144,145,40,r04,TS_COL_WHITE,TS_MODE_NORMAL);
                TSLCDFillRect(144,145,r04,160,TS_COL_BLUE,TS_MODE_NORMAL);
         		TSLCDFillRect(176,177,40,r05,TS_COL_WHITE,TS_MODE_NORMAL);
                TSLCDFillRect(176,177,r05,160,TS_COL_BLUE,TS_MODE_NORMAL);
                TSLCDFillRect(208,209,40,r06,TS_COL_WHITE,TS_MODE_NORMAL);
                TSLCDFillRect(208,209,r06,160,TS_COL_BLUE,TS_MODE_NORMAL);
                TSLCDFillRect(240,241,40,r07,TS_COL_WHITE,TS_MODE_NORMAL);
                TSLCDFillRect(240,241,r07,160,TS_COL_BLUE,TS_MODE_NORMAL);
                TSLCDFillRect(272,273,40,r08,TS_COL_WHITE,TS_MODE_NORMAL);
                TSLCDFillRect(272,273,r08,160,TS_COL_BLUE,TS_MODE_NORMAL);

}

}

